1,0.21282794719930806,-0.0016861374192514286,-0.05791813783811536,0.20262290857961066,0.06986079953249004,-0.01731487412959041,-0.36405272581918696,0.05103236986817268,0.0072576775959889385,0.1670464703354653,-0.399709221052639,0.19807778690514213,0.008002065497371138,0.2508910026257974,-0.4478640976283118,-0.24176950811717723,0.19807778690514213,0.0,0.2571576162205581,-0.6638614926205034,-0.024036661222365717,-0.2972545283768475
2,0.3852109452685826,0.08511333760068276,0.027843665682803335,-0.004012474037620369,0.2043671625808121,-0.011805883462678126,0.04823389511850249,0.06023546188732987,0.04134356014266782,0.06928343835565794,-0.6332125132284472,0.12314084663918448,0.0,-0.03665100147107257,-0.388685582653608,-0.26173333738728666,0.12314084663918448,0.0,0.09270675704224839,-0.7526193438749079,-0.027157334679303043,-1.408752625140668
4,0.8123777007636498,0.0402476605405773,0.0849975317083407,0.31826259733553713,0.3011146649586374,0.06193479360397198,0.03505798125705257,0.1257183555939506,0.07271118880823567,-0.08664821315729127,-0.4962711805044613,-0.0016212330236956246,0.0,-0.01811229787249258,-0.3786527694827827,-0.18453309328278014,-0.0016212330236956246,0.0,0.29173104767461044,-0.8397967150591381,-0.03323249325352935,-1.6310492890423558
8,0.5197949741942304,0.011159363656382879,-0.12379777949015315,0.49639924915899447,0.1044183924810604,-0.1879590867675939,0.12018197703336365,0.1787940320278028,0.08381963167836098,-0.13609631128360236,-0.5248052263292555,-0.0023002344287034546,0.0,-0.03608476009969677,-0.35841413098868535,-0.2641024120957757,-0.0023002344287034546,0.0,0.33081465061228676,-0.9720215572719768,-0.017394396524471643,-0.9253543792752663
9,-0.006248088054762563,-0.0673051171391458,0.06921104194759928,0.11690385582288257,0.554621272846256,0.14228069884439773,-0.1688804763182585,-0.0015067016530503454,0.0893761578929659,-0.03972400494158798,-0.7143595001366373,0.0,0.0,-0.03164763694938431,-0.26450093127237895,-0.45793493685645414,0.0,0.0,-0.265603230658259,-0.4282515625087436,-0.06022871191122448,-1.384615325049248
19,-0.3514208120219574,0.0165506963468169,-0.1365080725427875,0.054112863133378146,-0.08158032598799224,0.016848451650576836,-0.023006937980675192,0.025887256374034787,-0.044921759643206466,0.006662812808640592,-0.40267952170087257,0.0,0.0,0.0,-0.1211090972277037,-0.27490761166453287,0.0,0.0,0.0,-0.3960167088922351,0.0,-0.8198597982797222
5,0.15869802637189823,0.08289894273470351,-0.03043251892271372,0.06081019263936494,0.10647098590432799,-0.12474859959391435,0.22369755528313115,-0.004811259658259833,-0.09586636128427219,0.09586729773892057,-0.4941503038089586,0.19156069914985877,0.0,-0.1331539643960761,-0.2263149384671964,-0.2303748023566224,0.19156069914985877,0.0,-0.1144745903615074,-0.4753691148583874,0.0,-0.8352887988485168
10,0.07270797084415,-0.03146491485823973,0.024439643785875324,0.059659936389348286,0.011125254141168406,0.18797155051343145,0.06775244026382678,0.03225896031681471,-0.16653669274512412,-0.10453138038574117,-0.6079398840855489,0.08765427960183324,0.0,-0.2009713861401309,-0.2784079634854319,-0.3207461944475673,0.08765427960183324,0.0,-0.330577499553421,-0.46954804451970666,0.0,-0.9277858700049486
20,-0.051643954594638226,-0.053264960252104816,-0.07476377563713657,0.1760003353987906,0.05146570973064953,0.01533585858727373,0.0608177234208995,0.031479831104266116,-0.5258047678120612,-0.30626243091286415,-0.4973313823637355,-0.08092637608527732,0.0,-0.07890712127505563,-0.11991221003758808,-0.5238481058786814,-0.08092637608527732,0.0,-0.4427154756149871,-0.27995196157633806,0.0,-1.3823269892805277
41,-0.13791677690305948,-0.09622534115350415,0.01097702041966372,0.1548231432458202,0.05043873060380748,0.013429943516243844,0.22291435027114168,0.021092300776162753,0.09226578179063144,-0.2548952662065169,-0.4726025267744123,0.0,0.0,-0.17802447733806678,-0.18014282298323692,-0.3693304926596258,0.0,0.0,-0.37169269744370403,-0.35580509553722606,0.0,-0.9689304750706461
83,-0.4742535946039641,1.0311023984457586,-0.16430508800234359,-0.12391368326589693,-0.7768900190724715,-1.1695835968806485,0.17810997703622064,-0.31025343448166914,-0.04186180949752051,0.0,0.33007224811405156,0.0,0.0,-1.8854773438992767,1.0536128777668532,1.1619367142464663,0.0,0.0,0.17142669441931688,0.15864555369473507,0.0,-0.309190753792408
167,-6.485471490808825,0.9298429956446328,1.1365477336402365,-0.0642141339108159,-1.4095807126367605,-0.06116115396970759,0.09229955574570614,-0.01286492011491869,-0.02169348670763566,0.0,0.17104893488767065,0.0,0.0,0.0,-0.07419901409126514,0.24524794897893498,0.0,0.0,-0.056739297050621695,0.22778823193829223,0.0,0.09898058677272425
21,0.08481894343035089,0.17291843425207654,0.6326099784749347,-0.09507862918785394,-0.006303461763814406,0.09627467527506686,0.0007008737650791781,-0.06788883036752089,2.1341239056833703,-0.29369884719103684,-0.11286952738055268,0.577265478769535,0.0,-0.13543569812635836,-0.7470359979989974,-0.10136215721575981,0.577265478769535,0.0,-0.5756129729199815,-0.4082208804211441,0.0,-0.2817024097276093
42,0.006573634911693126,0.47707750783609715,0.39566351940095507,0.7765388368623106,-0.3362871235141503,0.8232888703727339,-0.07130297251535445,0.016707377677702313,0.21271858485253473,-1.2644759572893174,-0.6236729019390366,0.0,0.0,-0.2663932007115673,-1.1037926099314666,-0.5179630485853136,0.0,0.0,-1.2970792815042849,-0.5910695777240745,0.0,-0.8809107083202089
84,0.0840278775550024,0.2694907236656869,-0.1280742692854164,0.11875471029126104,1.436428280347947,0.11591545598232092,-0.13000580171908413,0.10830721484280821,0.2781359103459055,-1.541399335298794,-0.8401079230702789,0.0,0.0,-0.19448899886486176,-1.1221427274200093,-1.0648755320842025,0.0,0.0,-0.8278392636416869,-1.553667994727377,0.0,-2.022234386630453
169,2.146627658352796,-4.621682785816015,2.4827104535017073,-0.14690465905167746,0.25390536096850214,-1.777273631395135,0.21115654672343515,-0.17857879100357202,-0.04962886010194205,0.0,0.3913139355850334,0.0,0.0,0.0,1.643283150023377,-1.2519692144383405,0.0,0.0,-2.192289161286495,2.5836030968715167,0.0,-1.1011386528222051
85,1.9385945081615523,-5.267581140417017,0.4839814759605913,0.20208493807616754,-0.2170332509691431,-1.9320993727075593,0.7361679888753615,0.3380173731831844,-0.2563456194565586,0.47307659225053195,1.5481588947922944,0.0,0.0,-3.5015320523236357,2.7467703012973326,2.775997238069125,0.0,0.0,2.273693709046784,-0.252458222003973,0.0,-0.031210679874878133
11,-0.05685978188370956,0.023288242369906845,0.019666923918273384,0.005887713354671176,-0.010759049512859331,-0.11012726004304524,0.016327569604456794,-0.06166105269102803,-0.0594117553489116,-0.3077136692044087,-0.10520551994678089,-0.04790311869369918,0.0,-0.12779193721517523,-0.1302566613212756,-0.10696747192103977,-0.04790311869369918,0.0,-0.3839873281843417,0.018971257726846907,0.0,-0.10723114117085239
3,0.04763769585978569,-0.2025275128328739,-0.23558593790939186,0.24809241883279481,-0.16734913316673186,-0.1027476308841329,-0.23211513759121272,-0.006184756604763395,0.008435301295700463,-0.20950140116125437,-0.041649932120723605,0.0,0.04211103529892702,-0.12142267706213103,-0.06864572752017367,-0.10319396399859995,0.0,0.0,0.35562048979396615,-0.6067718230759452,0.0,0.3537353412127991
6,-0.010108787422660316,-0.0586323877309955,0.09658482158326356,0.05678440056811798,0.03581338515478543,0.11161389619735788,0.023827103923039494,-0.012716970324131932,-0.044958917132090596,0.18062999144095734,0.15388051551240758,0.0,0.0,1.1077481098366941,-0.15937419885063575,-0.6138634040326928,0.0,0.0,0.23541132213944713,0.09909918481391738,0.0,-0.2606526414890292
12,0.24452318242342203,-0.3290718578987522,0.11766813563480348,0.1171428649541054,0.12947483570878351,-0.513517006873713,-0.30569480532178656,0.14744598573389608,-0.03487515164532175,-0.36211626873865976,-0.869727330154434,0.0,0.0,0.0,-0.7373985116801786,-0.49444508721291563,0.0,0.0,-0.4760447557634142,-0.7557988431296782,0.0,-0.5886628793968152
24,-0.1506037425780445,0.14290125390284344,0.47362141849514977,-0.22367317856343102,-0.7572146170220444,0.2812909767973101,-0.2367139752134262,-0.4552287676191869,0.13407718961719708,-1.0120305934656673,0.04609229840078336,0.0,0.0,0.0,-0.45391325513347824,-0.5120250399313986,0.0,0.0,-0.14725370269019356,-0.8186845923746892,0.0,-0.866365089128116
49,1.3164044561313604,-1.313697648904383,0.375415685448591,0.45112606723461046,-0.43686074041118794,-0.3684611711985649,-1.2082703126166385,0.15685587751858052,-0.14148735153389438,-0.2698588993713165,-0.4684261015996974,0.0,0.0,0.0,0.0,-0.7382850009710127,0.0,0.0,0.20189921480590958,-0.9401842157769216,0.0,0.27552730531676906
25,0.2034495256344656,0.13129469406759062,0.03843964079184072,-0.1471100761948694,-0.0008601087639883365,0.0008581539829251163,-0.492390916501384,0.21632310621651515,-0.15269025874548794,0.049323243231093335,-0.7411080283159196,0.0,0.0,0.0,0.0,-0.6917847850848299,0.0,0.0,-0.9232941015366231,0.2315093164517971,0.0,-0.5889639193082137
51,0.21942287019201154,0.22436559004276965,0.039834023512835506,-0.0033720431701421147,0.006073536686908998,-0.043455329567799295,-0.40141675386655734,0.13609116460001344,0.49945543884478455,0.03816755268943698,-0.6112789163128707,0.0,0.0,0.0,0.0,-0.5731113636234325,0.0,0.0,-0.49091220179482137,-0.0821991618286093,0.0,-0.27050832263129293
103,0.18191744114222302,-0.21451036696751535,0.24520658040481472,-0.213940319364303,0.1483729844936644,-0.43304258092305065,-0.3719322763993896,0.14094115496237244,0.3704577584448601,0.04225738810930987,-0.5424271809679947,0.0,0.0,0.0,0.0,-0.5001697928586808,0.0,0.0,-0.4228482920681135,-0.07732150079056782,0.0,0.16845579531966276
206,-0.2812123970444375,-0.5783697264399834,0.2215430005331733,-0.798916876117756,1.0138779817692682,-1.0273705846064614,1.0122029711184723,-0.15522115500802855,0.3672022862127154,-0.2696491131570469,0.9388355702949163,0.0,0.0,0.0,0.0,0.6691864571378701,0.0,0.0,-0.2601942590930591,0.9293807162309301,0.0,-0.07149444860982401
13,-0.16649181188560622,0.14976311834839895,-0.19972473476562283,0.11860499956673871,-0.8341190887376795,0.020666157452986087,-0.15596630357852892,-0.0547087616919151,-0.0857904074127985,-0.05879508073284254,1.0931477657002124,0.0,0.0,1.3926832785093581,-0.3587827071098434,0.0004521135678555396,0.0,0.0,0.3258327434685689,0.708519941498802,0.0,-0.18209660049637977
26,0.1039223168287176,0.4479836410940963,0.6280845871854106,0.2172850802487077,-2.3524561746585775,0.655058141060694,-1.0581763675324876,0.25498753478261105,-0.06039670077134896,0.6591335545125878,-1.200898056161605,0.0,0.0,0.0,-1.0267104472778754,0.4849459456288565,0.0,0.0,-0.32467205777627645,-0.21709244387273555,0.0,0.1324547548044972
52,-0.03922055926707583,-0.1885867828468062,0.4014793093718761,0.25326949902824125,-0.82339011651115,0.40572278281754565,-0.47350579027565864,0.028007461916686408,-0.0974402403627008,0.6573450567253271,-1.5237217574650417,0.0,0.0,0.0,-1.5635190929394223,0.697142392199696,0.0,0.0,-0.23807205549230506,-0.6283046452474188,0.0,-1.4428858474276782
105,0.07263275096439699,0.07498630778863435,-0.021564357469690165,0.27659472467617185,-0.39545943437520326,-2.3225654545918855,1.8657330459389814,-0.030911635230766593,1.161596144796392,-0.9625850743249481,-0.22664039255028376,0.0,0.0,0.0,-0.9625850743249481,-0.22664039255028376,0.0,0.0,0.9396281399396023,-2.128853606814836,0.0,-0.794871824964895
210,0.9663917363753798,-0.5157791715483081,-5.2972346032153315,1.0523687175459147,-0.8415239816409722,-2.5944182954055037,-0.734349296268866,0.38654923588239926,-2.8033744749092513,-0.5540319755209203,-1.2653675108322708,0.0,0.0,0.0,-0.5540319755209203,-1.2653675108322708,0.0,0.0,0.04989903092744298,-1.8692985172806271,0.0,-0.5301569440419696
27,0.48353844719930367,0.04527434000821178,-0.18216023440279078,0.03845521513404089,-0.7690663977529695,-0.05471075987459796,0.2263974497321853,-0.020308845583082068,0.15421885052130535,0.22736332657352615,0.4774430369181687,0.0,0.0,1.256789076402324,0.3313720645640801,-0.8833547774747068,0.0,0.0,0.08615944657128916,0.6186469169204043,0.0,1.4920680635202588
54,0.21594708517636188,0.06786500877736841,0.16495380025423556,0.22850717299527806,0.811799039282543,0.39029493531946374,0.49527351634369965,-0.08892925501787813,0.14768947350478984,0.10819555844488214,-0.27067248109987585,0.0,0.0,0.0,0.7145680987201085,-0.8770450213751045,0.0,0.0,-0.210301299996272,0.047824377341275724,0.0,0.14587148649600426
7,-0.042901131927637476,-0.0746803392994218,-0.14621674030526136,0.018022067243552355,-0.13298665183710187,-0.3367933004735262,-0.10857107817667216,-0.27635279832493137,0.04280854232078268,-0.09774430166033626,0.1976971127738318,0.0,0.08236247811028413,-0.21855300570103095,0.01813406098081026,0.21800927772343257,0.0,0.0,0.2021970722146998,-0.10224426110120492,0.0,0.9668814699986483
14,-0.1409969711874184,-0.036977652004357674,0.25926480020731235,0.10622655634527212,0.1259058128148461,-0.24651912996301906,0.17352164823444508,-0.21391415485607365,0.3486973108957776,-0.31402092528716696,1.1887884880876984,0.0,0.28988273288285255,0.019468460007371166,0.4217021659978302,0.143714203912472,0.0,0.0,-0.001476829399249298,0.876244392199781,0.0,0.058307655204401926
29,0.017337688784379024,-0.11521999520945422,0.10275772247192418,0.2632945890463783,-0.05346704344205051,-0.22820594753869133,0.4602271102252721,-0.19716505172033058,0.25123640722716617,0.17525915277557516,0.43928270958512966,0.0,0.29950256074540305,-0.3034302666196476,0.3680281773791248,0.2504413908558175,0.0,0.0,0.09294328730198383,0.521598575058717,0.0,0.6083066350049493
59,-0.37134878001501925,-0.23089681152046532,-0.44636151517039657,-0.7483242764484983,-0.4355529261824898,-0.11103945554805049,-0.16983821997607926,-0.48917929729076387,0.20927018077735504,0.5863274100342393,0.5411907435888031,0.0,0.45125225840101063,-0.4175239873655615,0.2627547159590238,0.8310351666285727,0.0,0.0,0.9356339328311573,0.1918842207918778,0.0,1.3488017783252393
118,-0.20263280412716175,-0.0911258876813779,-0.2676117810559528,-0.9066413911457883,0.3416651786949984,-0.9709807385805733,0.2568629263042007,-0.13505940219229898,-0.29291408008120584,0.04892101537232865,0.4129103546947458,0.0,0.6865854270545381,-0.9224095660598272,0.7991747378958928,-0.10151922882353343,0.0,0.0,0.545685748828166,-0.08385437876109253,0.0,-0.04455028368721073
236,0.3804250289641786,-0.4244967151469913,0.1576782054558284,-0.8897189198388464,3.0149412829607067,0.36254792694535365,2.0922959899867304,0.3543546572794967,2.743173110202363,-2.7967409359097024,1.3627202649937598,0.0,0.0,-1.3278436897777632,-0.20784100607177047,0.10166402493358766,0.0,0.0,-1.2527947820973169,-0.181225888818627,0.0,0.006551246555593693
15,0.636953857897699,0.09721926152098775,-0.12135218984199315,0.08080735892520825,-0.13981353439478067,-0.05330568895722913,-0.3288254659348935,-2.0076825363723976e-05,0.016600349448051166,0.21523129230346724,-0.21513679524497198,0.0,0.0,-0.21513679524497198,-0.002797952264444224,0.21802924456791048,0.0,0.0,0.24123413120229106,-0.24113963414379622,0.0,0.8067826056009293
31,0.5063526547287297,0.043526589355647925,-0.0873720864702736,0.048272825138569384,-0.14367063446864725,-0.18812732966047324,-0.19970966596401146,-0.0430557985288064,0.02275396436754318,0.20265386775119104,0.0,0.0,0.0,0.0,0.0010216336890414197,0.2016322340621511,0.0,0.0,0.30433135091078234,-0.1016774831595884,0.0,1.4518089773105407
62,-0.12178085806190066,0.18351794198389773,0.08822046327519181,-0.0615810328663794,0.08660236763104288,-0.22672460574673112,-0.2117930559951205,-0.0651863064566889,-0.0355429893250817,0.3068171437820201,0.0,0.0,0.0,0.0,0.14503104277104437,0.16178610101097438,0.0,0.0,0.07176400424765014,0.23505313953437054,0.0,1.415457708699737
124,0.13126951499285633,0.02662319997998778,0.13493880713110984,0.22020832533222737,0.02853745560835495,-0.15792374058411368,-0.13277262748184335,-0.052194244749003256,-0.012347153414449313,0.2456664592031907,0.0,0.0,0.0,0.0,0.23130793301917552,0.014358526184014989,0.0,0.0,-0.029321028139444077,0.2749874873426347,0.0,0.8850469134046852
249,0.11858276153830934,-0.01180507061412578,-0.0031652353420558556,-0.8485275339366775,0.03435204386074559,-0.5113906281360237,-0.6396833694844918,-0.07248277035590134,-0.03965606449044312,0.34115994267571736,0.0,0.0,0.0,0.0,0.17731404901778205,0.16384589365793592,0.0,0.0,0.15681039102196298,0.1843495516537522,0.0,0.9673159996980435
