1,0.21282794719930806,-0.0016861374192514286,-0.05791813783811536,0.20262290857961066,0.06986079953249004,-0.01731487412959041,-0.36405272581918696,0.05103236986817268,0.0072576775959889385,0.1670464703354653,-0.399709221052639,0.19807778690514213,0.008002065497371138,0.2508910026257974,-0.4478640976283118,-0.24176950811717723,0.19807778690514213,0.0,0.2571576162205581,-0.6638614926205034,-0.024036661222365717,-0.2972545283768475
2,0.3852109452685826,0.08511333760068276,0.027843665682803335,-0.004012474037620369,0.2043671625808121,-0.011805883462678126,0.04823389511850249,0.06023546188732987,0.04134356014266782,0.06928343835565794,-0.6332125132284472,0.12314084663918448,0.0,-0.03665100147107257,-0.388685582653608,-0.26173333738728666,0.12314084663918448,0.0,0.09270675704224839,-0.7526193438749079,-0.027157334679303043,-1.408752625140668
4,0.8123777007636498,0.0402476605405773,0.0849975317083407,0.31826259733553713,0.3011146649586374,0.06193479360397198,0.03505798125705257,0.1257183555939506,0.07271118880823567,-0.08664821315729127,-0.4962711805044613,-0.0016212330236956246,0.0,-0.01811229787249258,-0.3786527694827827,-0.18453309328278014,-0.0016212330236956246,0.0,0.29173104767461044,-0.8397967150591381,-0.03323249325352935,-1.6310492890423558
8,0.5197949741942304,0.011159363656382879,-0.12379777949015315,0.49639924915899447,0.1044183924810604,-0.1879590867675939,0.12018197703336365,0.1787940320278028,0.08381963167836098,-0.13609631128360236,-0.5248052263292555,-0.0023002344287034546,0.0,-0.03608476009969677,-0.35841413098868535,-0.2641024120957757,-0.0023002344287034546,0.0,0.33081465061228676,-0.9720215572719768,-0.017394396524471643,-0.9253543792752663
16,0.619708697499614,0.055728519612645876,-0.09170261998961018,0.5542373913947749,0.13999015320847522,-0.16231314382025894,0.041111817154562726,0.263967519856645,0.10602946610526923,-0.13726975103034478,-0.6987520230826864,-0.0013583586148234012,0.0,-0.06299860692447454,-0.45598351920251423,-0.31568128937121503,-0.0013583586148234012,0.0,-0.1986675665809812,-0.6228441468576836,-0.013151702059541383,-1.7852338175547802
32,0.5815878932408839,0.030725030913355832,-0.05415140195571561,0.6192846037243702,0.11275697610286776,-0.12135418224298797,-0.1432134167629968,-0.27505098435023284,0.1073007206715944,-0.12975893870609834,-0.7162864310820467,-0.0012532702097490865,0.0,-0.06921471746488837,-0.4529964830556244,-0.32258089905788484,-0.0012532702097490865,0.0,-0.2118498649136577,-0.6179937612873,-0.014948473377440513,-2.240949656735397
64,0.21283034447364663,-0.01371280325382592,0.17766089284220468,0.9066981112110357,-0.17048924201749524,-0.1535318971594203,-0.07497899428432109,-0.3794107200175363,0.1360988799156332,-0.20876152311917381,-0.8643517464402257,-0.0012483471586029954,0.0,-0.02934154739541177,-0.5244546035540958,-0.5180687714512874,-0.0012483471586029954,0.0,-0.13321660423708218,-0.9386483181637083,0.0,-2.5200093703121107
128,0.2754755854088572,0.05983599973369831,0.23491534532435074,0.8621912856546102,-0.02358499954996123,0.17124658172912155,-0.17195666792410372,-0.1680969997047623,0.1399176329853039,-0.17532789343255512,-0.9278955033723784,-0.0011804211545604776,0.0,0.0,-0.5673077969965683,-0.5347351786538083,-0.0011804211545604776,0.0,0.0,-1.1020429756503722,0.0,-3.0323052691553825
129,-0.15641308845590007,-0.02212595151763441,-0.5314626051411478,0.2691507042183004,0.0631575775343573,-0.027736739007376995,-0.38686950854924473,-0.3824977666274524,0.0909272907490983,0.0,-0.7169440507403864,0.0,0.0,-0.17688194693655493,-0.19576278351691762,-0.3442993202869174,0.0,0.0,-0.19898665330005233,-0.5179573974403384,0.0,-1.3830228284264976
65,0.3298239666282424,-0.037580257525716566,-0.01210249558019954,0.370548059638495,0.046942380575131684,0.15575740562282317,-0.33576270353763094,0.07791669213838058,0.10697940327725845,-0.04945011878866836,-0.7940617256698398,0.0,0.0,-0.1241811540789122,-0.3130163175505752,-0.4063143728290238,0.0,0.0,-0.38019550437696936,-0.4311932518528783,-0.03212308822866291,-2.0718115339087992
130,0.5843341143570272,-0.018035254315320486,0.0016194155051701847,0.34006879747379803,0.3464477567171704,0.1780864660407774,-0.4474257742157094,0.25667541429145097,0.10516004120695371,0.0,-0.829166527428813,0.0,0.0,0.0,-0.2548716195626,-0.5742949078662026,0.0,0.0,-0.27928984623729625,-0.5498766811915169,0.0,-2.4218672538762487
131,0.053028605792872684,0.03024411364999612,-0.00019941887357896688,0.39341246348007175,-0.0839584094686682,-0.09777930077670074,-0.2615032129452631,0.014959848448814194,0.10747444853328696,-0.08107634817411277,-0.7663388321061644,0.0,0.0,-0.1872839423789367,-0.3906825397493955,-0.26944869815193717,0.0,0.0,-0.40446591862360953,-0.39624156957413376,-0.04670769208252472,-1.7048217990312038
33,-0.060042140259180504,0.04795050426494897,-0.2885161485459667,0.2409215425872396,0.23515836476643495,-0.055477017900868335,0.873014823281045,0.3266934388672728,0.12038326645173332,-0.16574138164256144,-0.7834573240509968,0.0,0.0,0.0,-0.437025696430368,-0.5121730092631859,0.0,0.0,0.0,-0.9491987056935579,0.0,-0.8227910101303997
66,-0.5248082246532858,-0.0341774629559592,0.2552334064640237,0.12192525112233815,-0.21680404848012,0.21286399796005093,0.9730802784608188,-0.32097538703999245,0.0892380056215906,-0.20423168261960659,-0.4993926825545154,0.0,0.0,0.0,-0.42334314274049234,-0.2802812224336269,0.0,0.0,0.0,-0.7036243651741216,0.0,-1.6995254115295646
133,-0.32246970929214525,0.04100297097623527,-0.13794310474386845,0.19169296192756538,-0.04371420354359105,-0.19490628070477495,-0.2755339696719418,-0.00410311547668426,0.06475971049143775,0.0,-0.5106177560334557,0.0,0.0,0.0,-0.1320553610443029,-0.37856239498915856,0.0,0.0,0.0,-0.5106177560334557,0.0,-1.4094241191758379
67,0.20978567644931964,4.03285607975309,1.8723458752904452,-0.08070410843277544,7.640160146389155,-3.503342777116687,0.11600177253101052,0.43095321438640943,-0.0272643014382082,0.0,0.2149737284887667,0.0,0.0,0.0,-2.1874104385836244,2.402384167072393,0.0,0.0,0.0,0.2149737284887667,0.0,0.11359568216682447
17,-0.21196143269635392,-6.352936263940309,1.419430501490509,0.07205403864583633,1.151665390344709,4.227602960279237,-0.10356841012496075,-0.9765970347261193,0.0243420448801162,0.0,-0.19193230234705883,0.0,0.0,1.6584019753641885,0.2088087330578858,-2.0591430107691346,0.0,0.0,-0.1378853216240228,-0.05404698072303608,0.0,-0.12787157429227003
9,-0.006248088054762563,-0.0673051171391458,0.06921104194759928,0.11690385582288257,0.554621272846256,0.14228069884439773,-0.1688804763182585,-0.0015067016530503454,0.0893761578929659,-0.03972400494158798,-0.7143595001366373,0.0,0.0,-0.03164763694938431,-0.26450093127237895,-0.45793493685645414,0.0,0.0,-0.265603230658259,-0.4282515625087436,-0.06022871191122448,-1.384615325049248
18,0.6662062906428448,-0.33039775490563567,0.6696384146143551,0.008549959176553809,1.0804186689583666,0.18526889360510568,0.0625604012248773,-0.053582730811381166,0.11341090712003161,-0.1610690323485804,-0.7331539724161782,0.0,0.0,-0.05324472064577008,0.04349951930296541,-0.884477803421956,0.0,0.0,-0.12809333153720848,-0.44970894655144167,-0.31642072667610416,-0.7100238747085983
36,0.43798982274015935,-0.19517965696166217,0.49409890216243657,-0.04462864479373911,0.8449058956770861,0.08736225896952526,0.04861039835052244,-0.08801497303828744,0.12436284083309582,-0.20321140153173575,-0.7773654762561452,0.0,0.0,-0.06908994758094124,-0.10081346140907697,-0.8106734687978621,0.0,0.0,-0.19273117642553048,-0.5056444942158339,-0.2822012071465096,-2.3790662922372636
72,-0.31381207790527516,-1.2290311362687592,0.12267350146529037,0.29795485306414016,2.7949564733316015,0.5636426256898492,-0.9402005803020248,0.4096558471966931,0.26252649665447625,-0.23589744602202112,-1.8340730588454612,0.0,0.0,-0.02701374468515241,-1.097329469268432,-0.9456272909138974,0.0,0.0,-0.531006840831877,-1.5389636640355775,0.0,-1.8119385913274093
73,0.002640451518089103,0.04688794467873617,0.06971864860314707,0.2899168940554175,-0.01909793491702051,-0.19671584501011036,0.1970979350067573,-0.013367964800373097,0.097942741020924,0.0,-0.7722595153738836,0.0,0.0,0.0,-0.30886857595175893,-0.4633909394221166,0.0,0.0,0.13174541770865641,-0.4229353917177835,-0.4810695413647543,-1.510740250110011
146,-0.2913009084236952,-0.046673540290181253,-0.16708581674923906,0.2806988908590257,0.030995265555432874,-0.024370767159724836,0.06466692761109227,-0.016315325308687255,0.0948286192905027,0.0,-0.7477052695636951,0.0,0.0,0.0,-0.2049316368017753,-0.5427736327619169,0.0,0.0,0.0,-0.49190966672218134,-0.25579560284151115,-1.5442492889376684
147,0.9884873127027578,-0.4081713393060032,0.26178784182536396,0.32456585285967193,-0.8370450063667967,0.4384995461841499,-0.4665216550421764,-0.4549654758988401,0.10964821272124367,0.0,-0.8645548892656503,0.0,0.0,0.0,-2.0644959643658787,1.19994107510024,0.0,0.0,-0.022190271817867795,0.07756318632862767,-0.9199278037764034,-1.2788570393580179
37,3.4863860469429073,0.19351781529855186,4.0321127559732455,-0.057193738727117124,-4.4281174319051955,-0.35202702082467446,0.08220864090887614,1.8209092073673916,-0.019321783776759405,0.0,0.15234851730779253,0.0,0.0,0.0,-2.6279470870127057,2.7802956043204845,0.0,0.0,0.0,0.15234851730779253,0.0,0.12186540581774574
19,-0.3514208120219574,0.0165506963468169,-0.1365080725427875,0.054112863133378146,-0.08158032598799224,0.016848451650576836,-0.023006937980675192,0.025887256374034787,-0.044921759643206466,0.006662812808640592,-0.40267952170087257,0.0,0.0,0.0,-0.1211090972277037,-0.27490761166453287,0.0,0.0,0.0,-0.3960167088922351,0.0,-0.8198597982797222
38,-0.2630029148105492,-0.0009092969026567797,-0.08310697919006801,0.045315577782234294,-0.1685576934133042,0.026202114732146287,-0.03042034858892498,-0.1818088225051064,0.05221794298669336,0.0,-0.41172835193686913,0.0,0.0,0.0,-0.1906502493674013,-0.22107810256946572,0.0,0.0,0.0,-0.41172835193686913,0.0,-1.187942882941997
76,0.12203966938170842,0.2656837966841732,0.19385594829755282,0.1970926643803024,-0.20731256565800896,0.3925786717984327,-0.2832953472253432,-0.15285224910527714,0.06658389414462372,0.0,-0.525001090308955,0.0,0.0,0.0,-0.1388184087663628,-0.3861826815425914,0.0,0.0,0.0,-0.525001090308955,0.0,-1.2143867144657106
152,0.34419673826933606,-0.16281964833228937,-0.35943612821041765,0.16242960418698588,-0.2708599477092403,-0.3640527370952387,-0.23347165792551863,-0.1406868212348943,0.05487365856636292,0.0,-0.4326681541636431,0.0,0.0,0.0,0.01717711270053168,-0.44984526686417303,0.0,0.0,0.0,-0.4326681541636431,0.0,-2.063687695189703
153,-1.2040548101556303,-0.6989262942975203,0.8881112669630427,0.11032766779269713,0.40294406074646366,-0.6769191393807777,-0.15858182776191668,1.8850823571432656,0.03727204042134001,0.0,-0.2938828092081914,0.0,0.0,0.0,-0.4618474506841839,0.16796464147599313,0.0,0.0,0.0,-0.2938828092081914,0.0,-0.5233158634679445
77,-0.026481992799235136,-0.19393456845892545,0.051728045463116185,-0.08977962707439638,-0.10267351811877885,-0.2631550341628625,0.19392781688813432,1.5063689127964792,0.03361155432591582,0.0,-0.2650205863561491,0.0,0.0,0.0,-0.2007417446961213,-0.06427884166003368,0.0,0.0,0.0,-0.2650205863561491,0.0,-1.0622838455915078
154,1.2981381571879356,0.1194154979166148,-0.08185459640788152,-0.1254680634579062,-0.45686463687243956,0.40492282323557394,-0.33208788539253414,0.16593130276468257,0.07805177467351887,0.0,-0.6154231038986803,0.0,0.0,0.0,-0.4413266362372899,-0.17409646766138975,0.0,0.0,0.0,-0.6154231038986803,0.0,-1.6703742751142219
155,-0.5890481023616254,0.250238291376448,0.025620473407676814,0.06796512307114506,0.19487682158218395,0.028800691815468654,0.3384291122452684,0.8518778089059704,0.022960684885579646,0.0,-0.18104054672721456,0.0,0.0,0.0,0.2600479764813688,-0.44108852320858155,0.0,0.0,0.0,-0.18104054672721456,0.0,-0.7463830548991255
39,0.3491598346363812,2.674398740110208,3.120845912575211,1.9238894334223122,2.4819479800812028,5.756567210903056,-1.4666351991911264,3.273779631823067,-4.43341289492992,0.5984464463212853,-2.485327086806844,0.0,0.0,0.0,-1.3378763308973762,-0.5490043095881759,0.0,0.0,0.0,-1.886880640485547,0.0,0.41573644932497045
5,0.15869802637189823,0.08289894273470351,-0.03043251892271372,0.06081019263936494,0.10647098590432799,-0.12474859959391435,0.22369755528313115,-0.004811259658259833,-0.09586636128427219,0.09586729773892057,-0.4941503038089586,0.19156069914985877,0.0,-0.1331539643960761,-0.2263149384671964,-0.2303748023566224,0.19156069914985877,0.0,-0.1144745903615074,-0.4753691148583874,0.0,-0.8352887988485168
10,0.07270797084415,-0.03146491485823973,0.024439643785875324,0.059659936389348286,0.011125254141168406,0.18797155051343145,0.06775244026382678,0.03225896031681471,-0.16653669274512412,-0.10453138038574117,-0.6079398840855489,0.08765427960183324,0.0,-0.2009713861401309,-0.2784079634854319,-0.3207461944475673,0.08765427960183324,0.0,-0.330577499553421,-0.46954804451970666,0.0,-0.9277858700049486
20,-0.051643954594638226,-0.053264960252104816,-0.07476377563713657,0.1760003353987906,0.05146570973064953,0.01533585858727373,0.0608177234208995,0.031479831104266116,-0.5258047678120612,-0.30626243091286415,-0.4973313823637355,-0.08092637608527732,0.0,-0.07890712127505563,-0.11991221003758808,-0.5238481058786814,-0.08092637608527732,0.0,-0.4427154756149871,-0.27995196157633806,0.0,-1.3823269892805277
40,1.1314652562164147,1.0327231768143623,-1.438440004816085,0.10210835195584186,0.9700982235570657,0.04413933651140837,-0.6042923506988396,-0.08167288492616517,-1.3023427523446214,0.0428813201311256,-0.3930080947493846,-0.2141910506067265,0.0,0.0,0.7435271850741945,-0.8794629090857313,-0.2141910506067265,0.0,1.1081351826935386,-1.2440709067050877,0.0,-0.8221386555116152
80,0.413233191898382,-0.09042599178800641,-0.7431795032723552,0.15440065477893802,0.6837095867036413,0.06547048906825699,0.7986926015441133,0.17675445757533118,-0.8196005506876929,-0.755670356738872,-0.45598941236345164,0.1261208125628048,0.0,0.0,-0.13969691104818413,-1.1980836706169482,0.1261208125628048,0.0,-0.5449756985254713,-0.7928048831396592,0.0,-1.63774086060375
160,-0.3767733901281849,0.018889971906399034,-0.37033016946789343,0.2518175454707256,0.3185328563892774,0.033516215752799436,0.7760503750996435,0.21809540145138467,-0.8222904248727494,-0.7727819396587718,-0.5221101327904933,0.11771258075560345,0.0,0.0,-0.12894633744536632,-1.2836583157594994,0.11771258075560345,0.0,-0.5889154030725002,-0.8236892501323655,0.0,-2.6346263778067387
81,0.8823692862098699,1.2919755182736428,-0.243933468995642,-0.9941673707769108,0.2516510480307106,-0.6771156543856857,-0.29647038461222025,-0.065570531159262,-0.0617228089544744,0.2788316846503839,0.41946284309751974,0.0,0.0,0.0,0.08633074347119674,0.6119637842767044,0.0,0.0,-1.1862097000482592,1.8845042277961566,0.0,2.594546187868974
162,-2.5145628858682136,-0.46395979523887876,-0.5256436233060124,0.15340457484371517,-0.2740262640400605,1.2865328877514521,-0.22049933939930755,0.3756465569701131,0.05182472927042018,0.0,-0.40862793805420355,0.0,0.0,0.0,0.0,-0.40862793805420355,0.0,0.0,-0.40862793805420355,0.0,0.0,0.005374854142914165
41,-0.13791677690305948,-0.09622534115350415,0.01097702041966372,0.1548231432458202,0.05043873060380748,0.013429943516243844,0.22291435027114168,0.021092300776162753,0.09226578179063144,-0.2548952662065169,-0.4726025267744123,0.0,0.0,-0.17802447733806678,-0.18014282298323692,-0.3693304926596258,0.0,0.0,-0.37169269744370403,-0.35580509553722606,0.0,-0.9689304750706461
82,0.08893591503068438,0.027783722762702058,0.04566503260058927,0.05605298289488739,-0.07700846214064332,0.07263645640928783,0.031110891125982757,0.04624167842159984,0.09858757267679492,-0.18660083297150656,-0.5907430549333983,0.0,0.0,0.01874613459692332,-0.5991623954165304,-0.19692762708529427,0.0,0.0,-0.35160607547083783,-0.42573781243406333,0.0,-1.0915374584650626
164,-0.05782752397095361,-0.04142096739467745,-0.11328552138911764,0.10098659400008025,0.12841381219678874,-0.17653408817939123,0.18903643051371172,-0.2013790179060901,0.09253801506157958,-0.24134470468671837,-0.4882995948315938,0.0,0.0,0.0,-0.3853606879124887,-0.3442836116058262,0.0,0.0,-0.22392625865655608,-0.5057180408617565,0.0,-0.8729018450356065
165,-0.032629663876666666,0.2034798998575295,0.36703484061691216,0.5249152586061124,-0.2912705249487703,0.1360017269932432,0.6888388721466208,-0.015258189716457541,0.11909076500389094,-0.4951209661099427,-0.4438866163688951,0.0,0.0,-0.4356661782241738,-0.042386017106643664,-0.46095538714801904,0.0,0.0,-0.8272077525963222,-0.11179982988251158,0.0,-0.5534428224873176
83,-0.4742535946039641,1.0311023984457586,-0.16430508800234359,-0.12391368326589693,-0.7768900190724715,-1.1695835968806485,0.17810997703622064,-0.31025343448166914,-0.04186180949752051,0.0,0.33007224811405156,0.0,0.0,-1.8854773438992767,1.0536128777668532,1.1619367142464663,0.0,0.0,0.17142669441931688,0.15864555369473507,0.0,-0.309190753792408
166,1.7465031287058104,1.1922780092508052,-0.515348279305033,0.01256050770513402,0.26523205606531486,-0.24665056953753983,-0.018054113798910035,0.012419820763998796,0.004243321374090578,0.0,-0.033457765974004405,0.0,0.0,0.03387940405910986,-0.048649335098153175,-0.018687834934962136,0.0,0.0,1.215016882704005,-1.2484746486780038,0.0,-0.8298017912948845
167,-6.485471490808825,0.9298429956446328,1.1365477336402365,-0.0642141339108159,-1.4095807126367605,-0.06116115396970759,0.09229955574570614,-0.01286492011491869,-0.02169348670763566,0.0,0.17104893488767065,0.0,0.0,0.0,-0.07419901409126514,0.24524794897893498,0.0,0.0,-0.056739297050621695,0.22778823193829223,0.0,0.09898058677272425
21,0.08481894343035089,0.17291843425207654,0.6326099784749347,-0.09507862918785394,-0.006303461763814406,0.09627467527506686,0.0007008737650791781,-0.06788883036752089,2.1341239056833703,-0.29369884719103684,-0.11286952738055268,0.577265478769535,0.0,-0.13543569812635836,-0.7470359979989974,-0.10136215721575981,0.577265478769535,0.0,-0.5756129729199815,-0.4082208804211441,0.0,-0.2817024097276093
42,0.006573634911693126,0.47707750783609715,0.39566351940095507,0.7765388368623106,-0.3362871235141503,0.8232888703727339,-0.07130297251535445,0.016707377677702313,0.21271858485253473,-1.2644759572893174,-0.6236729019390366,0.0,0.0,-0.2663932007115673,-1.1037926099314666,-0.5179630485853136,0.0,0.0,-1.2970792815042849,-0.5910695777240745,0.0,-0.8809107083202089
84,0.0840278775550024,0.2694907236656869,-0.1280742692854164,0.11875471029126104,1.436428280347947,0.11591545598232092,-0.13000580171908413,0.10830721484280821,0.2781359103459055,-1.541399335298794,-0.8401079230702789,0.0,0.0,-0.19448899886486176,-1.1221427274200093,-1.0648755320842025,0.0,0.0,-0.8278392636416869,-1.553667994727377,0.0,-2.022234386630453
168,0.4545256976732453,1.6826296564767502,1.2010722574417183,0.2989415094348089,1.5054674671535708,-1.1671080067159747,-0.08268279940966927,-1.7000408002850926,0.17985933881703778,-1.0128666950586405,-0.5469548574440477,0.0,0.0,-0.16522387674861252,0.03189863929268865,-1.42649631504675,0.0,0.0,0.23868559828854818,-1.7985071507912356,0.0,-1.5785395849085702
169,2.146627658352796,-4.621682785816015,2.4827104535017073,-0.14690465905167746,0.25390536096850214,-1.777273631395135,0.21115654672343515,-0.17857879100357202,-0.04962886010194205,0.0,0.3913139355850334,0.0,0.0,0.0,1.643283150023377,-1.2519692144383405,0.0,0.0,-2.192289161286495,2.5836030968715167,0.0,-1.1011386528222051
85,1.9385945081615523,-5.267581140417017,0.4839814759605913,0.20208493807616754,-0.2170332509691431,-1.9320993727075593,0.7361679888753615,0.3380173731831844,-0.2563456194565586,0.47307659225053195,1.5481588947922944,0.0,0.0,-3.5015320523236357,2.7467703012973326,2.775997238069125,0.0,0.0,2.273693709046784,-0.252458222003973,0.0,-0.031210679874878133
43,-0.37528475097021285,-0.7224923459288152,-0.8212097628099442,-0.24682444784729146,0.9233609362325663,-0.35619793259153393,-0.16497670665151126,-0.010870100448707235,1.0104405768074949,1.9331218146691902,0.44572097977998165,0.27872403757117425,0.0,0.0,2.2794241731987688,-0.17930541632076497,0.27872403757117425,0.0,0.9295601824409244,1.170558574437069,0.0,0.44604476966699336
86,1.3562622287291857,3.631972790041389,-0.9226688775973534,1.1644678053790203,3.6549686560448325,1.2333222203188774,-0.8599167771946327,-0.2341967641138456,-1.2468999023709568,0.1792220021480408,-1.5239239101393813,-0.03396061012645951,0.0,0.0,0.0,-1.3107412978648838,-0.03396061012645951,0.0,0.8646821644939158,-2.175423462358792,0.0,0.03493982366974013
172,-2.7859475471320043,-1.6949897272327366,-1.9781291846204299,1.1512237081415166,1.1744054439179457,2.0561447116890976,-0.7876999653783653,-1.1618967487670455,-2.0798661088751205,0.21792581465397567,-1.3750470066091756,-0.031498020765637604,0.0,0.0,0.0,-1.1256231711895595,-0.031498020765637604,0.0,-0.5422587647187311,-0.5833644064708325,0.0,-0.7345397090070256
87,3.0969026782328246,-1.13012093608045,-0.3937164234964854,0.3852978435791632,-0.46467986143395873,0.2967183597875311,0.1590272629979363,0.8470542029616478,0.9748905841307147,0.9278736844838251,0.6553969253915067,0.09017797416597267,0.0,0.0,0.6670008668113523,0.8260917688980124,0.09017797416597267,0.0,0.1255758049269928,1.3675168307823766,0.0,0.38687497129692594
175,1.4274625630471542,0.1731561593017207,-0.33860079853587,0.2319476794497256,-0.3215539302909056,0.5972385465506977,0.1889859465587087,0.5618987137838783,0.9067435251620629,0.8510926538629854,0.6810693784723477,0.09467574203584413,0.0,0.0,0.638894977136397,0.7985913131630971,0.09467574203584413,0.0,0.10208816293547486,1.3353981273640136,0.0,1.656777141230776
11,-0.05685978188370956,0.023288242369906845,0.019666923918273384,0.005887713354671176,-0.010759049512859331,-0.11012726004304524,0.016327569604456794,-0.06166105269102803,-0.0594117553489116,-0.3077136692044087,-0.10520551994678089,-0.04790311869369918,0.0,-0.12779193721517523,-0.1302566613212756,-0.10696747192103977,-0.04790311869369918,0.0,-0.3839873281843417,0.018971257726846907,0.0,-0.10723114117085239
22,0.053030450790169555,-0.021790813586629,0.010763559615233936,0.026738242038188403,-0.01400699993806149,-0.023320381196082787,-0.10992263471736961,-0.02988018451844286,-0.02369057752885339,-0.15841410723465388,-0.251751606086629,-0.026940876588410635,0.0,-0.12695223000325773,-0.1178326744618463,-0.1384399322677682,-0.026940876588410635,0.0,-0.1805074669829907,-0.20271736974988278,0.0,-0.6489686187825472
44,-0.5975094201192636,0.011925880140453295,0.002274050472248785,-0.13093097008993754,-0.35054935088124384,0.6182636007595371,-0.42337828256139387,0.09257333700801906,-0.544695605239335,-0.5570951389624047,-0.22750673372934782,0.0,0.0,-0.6048303490124426,0.02091444570087811,-0.20068596938018668,0.0,0.0,-0.5356328779743321,-0.24896899471742193,0.0,-0.7649540746901629
88,0.3127620503713357,0.0701024838537679,0.0591541935405006,-0.31661872585210804,0.7843175616351121,-0.1042142910505992,-0.5316070045058835,0.025578118611415356,-0.3479944784266044,-0.4089894902009991,-0.576181144315167,0.0,0.0,0.0,-0.20840795323632022,-0.7767626812798404,0.0,0.0,-0.36123385265616115,-0.6239367818599993,0.0,-0.787421520123889
176,0.3271749022696011,0.05857654655865708,0.018139264592855447,-0.18092008750146932,0.8695598764350492,-0.30842297623856585,-0.7489092731751047,-0.01574602243623688,-0.3168203154117896,-0.4261978960392867,-0.9616758858999185,0.0,0.0,0.0,-1.3588186440886545,-0.02905513785055413,0.0,0.0,-0.5649410465623622,-0.8229327353768461,0.0,-1.4172000153575235
177,3.4023776857263393,-0.2542144903351652,-1.2689401734903993,0.03460428991501988,-0.5281863108580539,6.594600240330162,-0.04973921458611988,4.62459188053683,0.011690381191487163,0.0,-0.09217638815667732,0.0,0.0,0.0,-0.09217638815667732,0.0,0.0,0.0,-1.4518696752432858,1.3596932870866163,0.0,-0.01517638445714753
89,-0.22452645448772385,0.14604460233483038,-0.30426175091025276,0.010857877091155686,-0.23441378864066487,-0.9247850624496585,-0.015606801350727815,-0.07784141028094099,0.003668120988398922,0.0,-0.028922422502230358,0.0,0.0,-1.1993128939334226,-0.11548972089739223,1.2858801923285754,0.0,0.0,-0.028922422502230358,0.0,0.0,-0.2345264091856247
178,2.408814787548972,-0.7073834622611613,0.09567523310259118,-0.07927638773588414,2.4132961260084076,-2.146541616018943,0.11394960771889931,-0.6821127526127365,-0.02678197398046762,0.0,0.21117067003968296,0.0,0.0,-0.3352055388974917,-0.041304259259095304,0.5876804681962682,0.0,0.0,0.21117067003968296,0.0,0.0,-0.030084960226560042
179,-3.2956339100498813,0.4314085481102219,0.5711285065323672,0.1952731315697807,-0.8009259798896866,2.06951971927471,-0.2806800029101932,0.31169454433730076,0.06596920064281712,0.0,-0.5201543512769353,0.0,0.0,0.0,0.16878104072127834,-0.6889353919982129,0.0,0.0,-0.5201543512769353,0.0,0.0,0.5902172394576312
45,0.030288353850132066,0.08995608662095163,-0.07513845965765259,0.01455013312134236,0.09562075161295044,-0.11399050125543025,-0.005099653798287344,-0.150391800904594,0.10343538031514436,-0.06567073474152196,-0.26492355666163714,-0.022551185220439057,0.0,0.0,-0.18920038457072821,-0.11884272161199301,-0.022551185220439057,0.0,-0.11804938155613277,-0.1899937246265899,0.0,-0.3950400445721085
90,0.012970065040922935,0.0660790587306462,0.08373752212880711,0.25736845172415956,-0.0243381700342421,-0.026890139799886935,-0.0572783005395724,-0.13049042784675746,0.14678511305744146,-0.21847586117579665,-0.19107502367467835,-0.06288106257162858,0.0,0.0,-0.1708220402404263,-0.17584778203842052,-0.06288106257162858,0.0,-0.20254951782692684,-0.1441203044519214,0.0,-0.8317531904238136
180,2.2680276031580076,1.2397054252608948,1.3169742288725323,0.8112172003985011,2.2352752806806873,-0.5831179670301282,-0.9011135641576339,-1.317765650861324,0.2117918658241549,0.0,-1.6699377815712566,-0.021171961207098917,0.0,0.0,1.4023932907385548,-3.0511591111027037,-0.021171961207098917,0.0,0.3474083509484754,-1.996174171312629,0.0,-1.3674169421277176
181,-0.06759490852277217,-0.06379366479636238,-0.01800644273210596,-0.011818562495858127,-0.07510175559934655,0.04425006789096864,-0.06245203469929091,0.5782423954499543,0.12469111181967572,-0.03660591336637655,-0.1299653742767517,0.0,0.0,0.0,-0.11395077395088045,-0.05262051369224682,0.0,0.0,-0.19557936801065573,0.029008080367527257,0.0,-0.4708699291752554
91,-0.2328492894793666,-1.1343494906732723,0.4064813838573705,-0.5308613116261314,-0.24430595369822491,0.8047146524970573,1.1665704777388952,-0.013023517109845487,-0.15846831607473524,-0.21692597062946406,0.5741958293404241,-0.27581524683208786,0.0,0.0,0.755836864469149,-0.12275175892609916,-0.27581524683208786,0.0,0.41914069445263913,0.21394441109041162,0.0,-0.10687202155102807
182,-0.4101864216640442,-1.221483835658671,0.3079254836769662,-1.0816380044014244,1.3248488500336102,0.4559564630249544,1.741430746561931,-0.32312985590353893,3.9522480728768605,0.13239979928296217,0.00336612959063305,-0.5713570076154884,0.0,0.0,1.3923751983661248,-0.6852522618770459,-0.5713570076154884,0.0,0.6372022965111188,0.06992063997796151,0.0,-0.7819141621632619
183,0.18935658604756897,-0.42538732393685497,0.05144457557550433,-0.19484796614240574,0.12311869488774015,0.3302589495551409,-0.08831891852028312,0.19620524580091872,-1.2711742864191915,0.2924135621499661,0.13103548928715314,0.0586634425351737,0.0,0.0,0.2844543009146329,0.0803313079873138,0.0586634425351737,0.0,0.4328719236829522,-0.06808631478100538,0.0,0.5048594824388286
23,2.1045619175817687,3.2295599521770364,0.5389657174715028,0.3041770477167922,-0.5433508099578199,0.3106934757076389,-0.4372153708604471,-2.6877707260544508,0.1027602544725815,0.0,-0.8102446745056742,0.0,0.0,0.0,0.0,-0.8102446745056742,0.0,0.0,0.0,-0.8102446745056742,0.0,1.6811046494052686
46,2.7866533117493764,-8.213180911366555,-4.8854768936280815,-0.4237970259816995,0.7570277213659804,-1.000689007102077,0.6091536993832021,-1.399449842783449,-0.14317151988124513,0.0,1.1288796638355327,0.0,0.0,0.0,0.0,1.1288796638355327,0.0,0.0,0.0,1.1288796638355327,0.0,-0.4306324235518242
3,0.04763769585978569,-0.2025275128328739,-0.23558593790939186,0.24809241883279481,-0.16734913316673186,-0.1027476308841329,-0.23211513759121272,-0.006184756604763395,0.008435301295700463,-0.20950140116125437,-0.041649932120723605,0.0,0.04211103529892702,-0.12142267706213103,-0.06864572752017367,-0.10319396399859995,0.0,0.0,0.35562048979396615,-0.6067718230759452,0.0,0.3537353412127991
6,-0.010108787422660316,-0.0586323877309955,0.09658482158326356,0.05678440056811798,0.03581338515478543,0.11161389619735788,0.023827103923039494,-0.012716970324131932,-0.044958917132090596,0.18062999144095734,0.15388051551240758,0.0,0.0,1.1077481098366941,-0.15937419885063575,-0.6138634040326928,0.0,0.0,0.23541132213944713,0.09909918481391738,0.0,-0.2606526414890292
12,0.24452318242342203,-0.3290718578987522,0.11766813563480348,0.1171428649541054,0.12947483570878351,-0.513517006873713,-0.30569480532178656,0.14744598573389608,-0.03487515164532175,-0.36211626873865976,-0.869727330154434,0.0,0.0,0.0,-0.7373985116801786,-0.49444508721291563,0.0,0.0,-0.4760447557634142,-0.7557988431296782,0.0,-0.5886628793968152
24,-0.1506037425780445,0.14290125390284344,0.47362141849514977,-0.22367317856343102,-0.7572146170220444,0.2812909767973101,-0.2367139752134262,-0.4552287676191869,0.13407718961719708,-1.0120305934656673,0.04609229840078336,0.0,0.0,0.0,-0.45391325513347824,-0.5120250399313986,0.0,0.0,-0.14725370269019356,-0.8186845923746892,0.0,-0.866365089128116
48,-0.41618757439398824,0.3231244192393725,0.6502195636583541,-1.5383664434535715,-1.2610237796149697,0.2888732547894343,0.21629883149202836,-0.6341466804445488,0.4185925784550274,-0.22314785651086985,-0.37454697745098925,0.0,0.0,0.0,-0.7403076008986472,0.14261276693678912,0.0,0.0,0.13809801843322997,-0.735792852395088,0.0,-1.2969573490074522
96,-0.058826013303625524,-0.3165364645075839,-0.4661730387684974,-0.021937687559236987,-1.1571770104270904,-0.755701579422971,0.9086795334505522,-0.41068360440686724,0.12429715492040182,-0.7632212914368008,-0.9680700092912995,0.0,0.0,0.0,-0.5067122952525516,-1.2245790054755539,0.0,0.0,-0.0793880685125979,-1.6519032322155072,0.0,-1.8872681269110594
192,-1.381189488740701,-0.9740823284710382,-0.3395603140046227,-0.011466399941086867,-1.3663005839064146,0.6232476711193093,0.611265603142843,-0.3674448551161262,0.1715649097079436,-0.532471343221849,-0.7174293788071626,0.0,0.0,0.0,-0.40442550861243814,-0.8454752134165819,0.0,0.0,-0.6473613592159547,-0.6025393628130663,0.0,-2.598196727366764
193,5.747838982389061,1.3107437292594675,3.0811420896729533,0.8692778839974776,-1.5527892255309674,1.4929042390326794,-1.2494751174868632,0.49195471431844917,0.2936684974671009,0.0,-2.3155191407811304,0.0,0.0,0.0,0.0,-2.3155191407811304,0.0,0.0,-2.3155191407811304,0.0,0.0,0.09061357980575102
97,0.1694522902970185,0.08859796758108193,-0.6009348713920352,-0.8601854484792021,0.25515008664426425,0.919052962912064,-0.9554340418892692,0.0009688482156939747,-0.024359387397570705,0.3946657667799219,-0.39922591535184543,0.0,0.0,0.0,0.0,-0.004560148571924796,0.0,0.0,-0.39922591535184543,0.3946657667799219,0.0,-0.040172063989471374
194,-0.29157457670324277,-0.591665202875442,0.3079234791677119,-0.004721016675846881,-0.13250290866417117,0.35254605793054095,-0.034409811595634755,0.09112324660846544,0.22850696886199767,-0.0815968788877499,-0.3472995531432634,0.0,0.0,0.0,0.0,-0.4288964320310133,0.0,0.0,-0.3472995531432634,-0.0815968788877499,0.0,-1.1945225018334773
49,1.3164044561313604,-1.313697648904383,0.375415685448591,0.45112606723461046,-0.43686074041118794,-0.3684611711985649,-1.2082703126166385,0.15685587751858052,-0.14148735153389438,-0.2698588993713165,-0.4684261015996974,0.0,0.0,0.0,0.0,-0.7382850009710127,0.0,0.0,0.20189921480590958,-0.9401842157769216,0.0,0.27552730531676906
98,-0.2908302489373941,-0.9442002976177257,-0.9276756415901735,-0.08304399308108014,-2.6588906271871395,0.503930146056482,-0.9565906887270991,0.32481039328724143,0.13901099554607008,-0.8095660757738503,-0.7192426964384572,0.0,0.0,0.0,0.0,-1.5288087722123154,0.0,0.0,-0.9682935802107847,-0.5605151920015239,0.0,-0.8057492132049995
197,0.7548069324473521,1.2766519296725745,-0.17416433905189505,-1.292117385049425,-0.48001615780362367,-0.2082695930929716,-0.2605182569662556,-0.029519424599739535,-0.15316175313025393,0.13894122913373783,0.0,0.0,0.0,0.0,0.0,0.13894122913373783,0.0,0.0,0.39741688481792226,-0.25847565568418435,0.0,0.034427188873974224
99,0.6966025038652083,1.1336070635998816,-1.593587722503874,0.821860646327977,1.466841915384442,-0.6280203316948342,-0.09722854447730146,-0.21019530224386168,-0.12037002616090399,0.2613589647201898,0.7279825975864486,0.0,0.0,0.0,0.0,0.989341562306635,0.0,0.0,1.2483053042905565,-0.25896374198390687,0.0,0.6319949105806859
199,-0.8174109492946429,0.7002488896197725,0.4484595281683651,-1.5518236810712915,-0.630146602768132,-0.41215807469598087,0.1924357124240727,-0.18305881909354108,0.11004108818941762,0.11285365061715677,0.7487626469055106,0.0,0.0,0.0,0.0,0.8616162975226701,0.0,0.0,1.1805013957129917,-0.3188850981903242,0.0,0.9424074746931489
25,0.2034495256344656,0.13129469406759062,0.03843964079184072,-0.1471100761948694,-0.0008601087639883365,0.0008581539829251163,-0.492390916501384,0.21632310621651515,-0.15269025874548794,0.049323243231093335,-0.7411080283159196,0.0,0.0,0.0,0.0,-0.6917847850848299,0.0,0.0,-0.9232941015366231,0.2315093164517971,0.0,-0.5889639193082137
50,1.0468457315005952,-6.832986748006572,1.5423498016027328,0.09858912975583502,-0.26659580110545866,0.5959144320423041,0.7454116889132048,0.08446288718063935,-0.7040769318383681,-0.39754763245506125,0.0,0.0,0.0,0.0,0.0,-0.39754763245506125,0.0,0.0,0.5543981526896317,-0.9519457851446931,0.0,-0.40752047213272546
51,0.21942287019201154,0.22436559004276965,0.039834023512835506,-0.0033720431701421147,0.006073536686908998,-0.043455329567799295,-0.40141675386655734,0.13609116460001344,0.49945543884478455,0.03816755268943698,-0.6112789163128707,0.0,0.0,0.0,0.0,-0.5731113636234325,0.0,0.0,-0.49091220179482137,-0.0821991618286093,0.0,-0.27050832263129293
102,-0.037760477855898034,-3.3481678377263058,3.2920038144692483,-1.2598709014104805,-1.0462913975272978,2.5151197132377097,2.428590284071162,0.3759185623625877,0.24230744241565777,-1.4327384559459726,-0.47780872806047137,0.0,0.0,0.0,0.0,-1.9105471840064396,0.0,0.0,-0.03543798695745277,-1.8751091970489828,0.0,-1.195307301247091
205,3.1417723750181743,4.234247100526258,-1.2075291812063196,-7.272757972535302,4.0587743407111505,1.4555596934859436,1.8207164503750781,0.20630608618463975,0.1231527955415479,-0.9710359053718599,0.0,0.0,0.0,0.0,0.0,-0.9710359053718599,0.0,0.0,-0.9710359053718599,0.0,0.0,0.16868634190430232
103,0.18191744114222302,-0.21451036696751535,0.24520658040481472,-0.213940319364303,0.1483729844936644,-0.43304258092305065,-0.3719322763993896,0.14094115496237244,0.3704577584448601,0.04225738810930987,-0.5424271809679947,0.0,0.0,0.0,0.0,-0.5001697928586808,0.0,0.0,-0.4228482920681135,-0.07732150079056782,0.0,0.16845579531966276
206,-0.2812123970444375,-0.5783697264399834,0.2215430005331733,-0.798916876117756,1.0138779817692682,-1.0273705846064614,1.0122029711184723,-0.15522115500802855,0.3672022862127154,-0.2696491131570469,0.9388355702949163,0.0,0.0,0.0,0.0,0.6691864571378701,0.0,0.0,-0.2601942590930591,0.9293807162309301,0.0,-0.07149444860982401
207,0.28204310649853104,-0.2889910506719612,0.008559943020651845,-0.07491517543773332,-0.05543631402592682,-0.5174208537339592,-0.6388666918610151,0.3946991222020895,0.1294770257406457,0.10745570119895215,-0.8105582556877344,0.0,0.0,0.0,0.0,-0.7031025544887903,0.0,0.0,-0.3226496830585991,-0.3804528714301893,0.0,1.1590673838676246
13,-0.16649181188560622,0.14976311834839895,-0.19972473476562283,0.11860499956673871,-0.8341190887376795,0.020666157452986087,-0.15596630357852892,-0.0547087616919151,-0.0857904074127985,-0.05879508073284254,1.0931477657002124,0.0,0.0,1.3926832785093581,-0.3587827071098434,0.0004521135678555396,0.0,0.0,0.3258327434685689,0.708519941498802,0.0,-0.18209660049637977
26,0.1039223168287176,0.4479836410940963,0.6280845871854106,0.2172850802487077,-2.3524561746585775,0.655058141060694,-1.0581763675324876,0.25498753478261105,-0.06039670077134896,0.6591335545125878,-1.200898056161605,0.0,0.0,0.0,-1.0267104472778754,0.4849459456288565,0.0,0.0,-0.32467205777627645,-0.21709244387273555,0.0,0.1324547548044972
52,-0.03922055926707583,-0.1885867828468062,0.4014793093718761,0.25326949902824125,-0.82339011651115,0.40572278281754565,-0.47350579027565864,0.028007461916686408,-0.0974402403627008,0.6573450567253271,-1.5237217574650417,0.0,0.0,0.0,-1.5635190929394223,0.697142392199696,0.0,0.0,-0.23807205549230506,-0.6283046452474188,0.0,-1.4428858474276782
104,-0.3907875682929915,0.4842331104307347,1.089242908185909,-2.0419413175144006,-2.5238639853448444,0.650185117203104,0.44656209639193123,-0.3129347778348014,-0.5977267389909287,-0.6229572660013348,-1.3370758641638765,0.0,0.0,0.0,-1.3624357673606686,-0.5975973628045275,0.0,0.0,-1.6920692040594851,-0.267963926105714,0.0,-0.4517375010368141
105,0.07263275096439699,0.07498630778863435,-0.021564357469690165,0.27659472467617185,-0.39545943437520326,-2.3225654545918855,1.8657330459389814,-0.030911635230766593,1.161596144796392,-0.9625850743249481,-0.22664039255028376,0.0,0.0,0.0,-0.9625850743249481,-0.22664039255028376,0.0,0.0,0.9396281399396023,-2.128853606814836,0.0,-0.794871824964895
210,0.9663917363753798,-0.5157791715483081,-5.2972346032153315,1.0523687175459147,-0.8415239816409722,-2.5944182954055037,-0.734349296268866,0.38654923588239926,-2.8033744749092513,-0.5540319755209203,-1.2653675108322708,0.0,0.0,0.0,-0.5540319755209203,-1.2653675108322708,0.0,0.0,0.04989903092744298,-1.8692985172806271,0.0,-0.5301569440419696
211,-0.4491442934920564,0.0018731221358009593,4.987164598845043,-0.6075087674583358,-0.9843515919867816,0.1542203078883997,0.2177454636610935,-0.4663168264225453,0.6716284590204167,-0.577275844115328,-0.9277810234436829,0.0,0.0,0.0,-0.577275844115328,-0.9277810234436829,0.0,0.0,-1.1463781168193503,-0.35867875073966304,0.0,-0.14081586613748004
53,0.6260707981720905,-0.9691376264116951,2.6696535466644558,-1.2486985003677369,-0.638817316872425,0.340786035468779,0.281842780704681,0.7037572470990506,0.0031032198723109977,-0.12219081682384302,0.09772253005027189,0.0,0.0,0.0,2.3887400930148175,-2.4132083797883825,0.0,0.0,-0.024468286773569214,0.0,0.0,0.14722591316082045
107,-1.0217129683245554,1.549889291747292,0.4289032708318322,-1.1605327299444503,-0.07078392222329806,-0.11491671120020504,-0.436086562259545,1.3015494783708328,-0.06180110549090027,0.28949834335510793,0.19779138611832198,0.0,0.0,0.0,0.9701397589449584,-0.482850029471534,0.0,0.0,0.48728972947342986,0.0,0.0,1.1289987999373152
214,8.291569006475376,-0.10008342493753282,0.18040038008071216,-0.04786855983044344,0.0855075060745619,-0.19113263114605347,-0.239082139529204,-0.027090489830395463,-0.01617145483636983,0.12750878466998822,0.0,0.0,0.0,0.0,0.0,0.12750878466998822,0.0,0.0,0.12750878466998822,0.0,0.0,-0.001567188473255321
27,0.48353844719930367,0.04527434000821178,-0.18216023440279078,0.03845521513404089,-0.7690663977529695,-0.05471075987459796,0.2263974497321853,-0.020308845583082068,0.15421885052130535,0.22736332657352615,0.4774430369181687,0.0,0.0,1.256789076402324,0.3313720645640801,-0.8833547774747068,0.0,0.0,0.08615944657128916,0.6186469169204043,0.0,1.4920680635202588
54,0.21594708517636188,0.06786500877736841,0.16495380025423556,0.22850717299527806,0.811799039282543,0.39029493531946374,0.49527351634369965,-0.08892925501787813,0.14768947350478984,0.10819555844488214,-0.27067248109987585,0.0,0.0,0.0,0.7145680987201085,-0.8770450213751045,0.0,0.0,-0.210301299996272,0.047824377341275724,0.0,0.14587148649600426
108,0.2851070895731552,0.6744392320784075,-0.9155036770712199,-0.021543599029812118,1.722431945214616,-0.16266968540254287,0.779142885055392,0.016974997229641922,-1.3452836626343974,-0.457995320595124,0.19593841201479273,0.0,0.0,0.0,0.5718368343434662,-0.8338937429238003,0.0,0.0,-0.8585675258545902,0.5965106172742662,0.0,-0.7051903816750866
217,-0.3169405887851917,0.2462433071445035,-0.148842731957921,-0.26832585393797,0.09454508347817474,-0.747475325401785,0.33149850070518255,0.03693989683487287,-0.7856563072861978,-0.1073258259579144,0.241396816355201,0.0,0.0,0.0,-0.1073258259579144,0.241396816355201,0.0,0.0,0.241396816355201,-0.1073258259579144,0.0,0.5331303871187173
109,0.37444422514883885,-0.26439488690879626,0.17210872992279372,-0.2024603190956766,-0.7964274230633751,0.5997664362193822,-0.6355034743917185,-0.8993270507511699,0.030265287882483928,0.6129571385740359,-0.4763536458991381,0.0,0.0,0.0,0.5572712035805211,-0.42066771090562327,0.0,0.0,0.4380160669552573,-0.3014125742803655,0.0,0.14113860098123154
218,0.7699833993065326,2.2983352662012124,-0.11617063894950283,-1.3199742942868624,0.002586506487511276,-0.004590068619445952,0.4922008601424356,-1.081259564292943,-0.18058034567536763,-0.21274796520107936,0.17289023715169227,0.0,0.0,0.0,-0.34582590276666636,0.3059681747172754,0.0,0.0,0.17289023715169227,-0.21274796520107936,0.0,2.9980767213619566
219,0.04149712990713421,-0.12192013190943944,0.5513690364268709,0.7798817584728919,-0.5783108833817933,1.2696875893102828,-0.467125619199425,-0.44850841998360846,-0.022260176951710942,0.37371706336083593,-0.42914969385142954,0.0,0.0,0.0,0.37371706336083593,-0.42914969385142954,0.0,0.0,0.2092263021900514,-0.26465893268064244,0.0,0.8485516433644353
55,0.4039653400166839,-2.840847182320184,1.02319320499666,0.8723750153987548,-2.592782850277546,-0.9408481361236751,-0.4564481431375773,0.13773998785103597,0.3532339190320365,1.0014078029962774,1.673681938050278,0.0,0.0,2.1107129221971848,-0.769006696718267,1.3333835155676672,0.0,0.0,1.9847930810398247,0.6902966600067514,0.0,0.3264088355859316
7,-0.042901131927637476,-0.0746803392994218,-0.14621674030526136,0.018022067243552355,-0.13298665183710187,-0.3367933004735262,-0.10857107817667216,-0.27635279832493137,0.04280854232078268,-0.09774430166033626,0.1976971127738318,0.0,0.08236247811028413,-0.21855300570103095,0.01813406098081026,0.21800927772343257,0.0,0.0,0.2021970722146998,-0.10224426110120492,0.0,0.9668814699986483
14,-0.1409969711874184,-0.036977652004357674,0.25926480020731235,0.10622655634527212,0.1259058128148461,-0.24651912996301906,0.17352164823444508,-0.21391415485607365,0.3486973108957776,-0.31402092528716696,1.1887884880876984,0.0,0.28988273288285255,0.019468460007371166,0.4217021659978302,0.143714203912472,0.0,0.0,-0.001476829399249298,0.876244392199781,0.0,0.058307655204401926
28,-0.903584797687007,-2.7781092150323974,0.04181754779164301,-1.3369769744732776,3.6979370473178568,1.1403703088821204,1.3246434152714304,-0.388178253775606,-5.930630368086158,-0.4356445183560381,1.6399743882928712,0.0,0.0,2.24648664648395,-1.2030866712889197,0.16092989474181907,0.0,0.0,1.2043298699368286,0.0,0.0,0.14708670760914622
29,0.017337688784379024,-0.11521999520945422,0.10275772247192418,0.2632945890463783,-0.05346704344205051,-0.22820594753869133,0.4602271102252721,-0.19716505172033058,0.25123640722716617,0.17525915277557516,0.43928270958512966,0.0,0.29950256074540305,-0.3034302666196476,0.3680281773791248,0.2504413908558175,0.0,0.0,0.09294328730198383,0.521598575058717,0.0,0.6083066350049493
58,0.540277686643188,0.00872722574263498,-0.19089389418693561,0.4212598578516085,0.28776384963669926,0.17801302136568484,-0.3677624660506253,0.1428875228622271,-0.9180654210447845,0.10135646372637686,-0.32934320378936516,0.0,0.0,0.5554837405856707,-0.14218583166415716,-0.6412846489845048,0.0,0.0,-0.227986740062989,0.0,0.0,0.16112742161703883
116,-1.1263493107951588,-0.5812105599182237,0.5357941687231602,1.286338845783434,0.29997023196914774,-0.545262936870006,1.266630260251679,-0.26881588227137926,0.2966699751712053,-0.5836621574195116,0.31921111758533105,0.0,0.0,0.31921111758533105,0.03834278520333538,-0.6220049426228494,0.0,0.0,-0.2644510398341826,0.0,0.0,-0.36684675253980326
232,2.0748668214302017,1.7069799603556641,-0.9169394364101098,-0.23739303710485465,2.360778175384895,0.20771090413950954,-0.19095965099372805,-0.8954681073920379,-2.6158063376130127,0.3477703378804175,0.85454156360837,0.0,0.0,0.85454156360837,0.8762853596427166,-0.5285150217623031,0.0,0.0,1.2023119014887846,0.0,0.0,-1.283827654222157
233,0.7344751633055198,-2.5505789155268483,1.6236662789462548,0.5142804259979863,-1.3356862702497259,-0.18603375266531674,-0.6436198827821488,-0.3825959718250185,2.5686833139572105,0.18934064610203788,-0.5348343563245826,0.0,0.0,-0.5348343563245826,2.9915066321070585,-2.8021659860050154,0.0,0.0,-0.34549371022254777,0.0,0.0,0.3958151849448488
117,0.3383196707652711,0.08750820139146949,-0.03805190905479745,-0.39215966404647246,0.09560941037372488,1.6513379004550188,-1.7177881555080585,0.4644718694052029,-1.031502020693033,0.7211860970603751,-0.6774280268384487,0.0,0.0,0.703670025262364,-0.18558421907058226,-0.47432773596985517,0.0,0.0,0.043758070221927174,0.0,0.0,0.4049531698113529
235,0.7475753438724,-0.3388864314417867,-0.27537979475427676,-0.30122951391286235,-0.012346793531908361,0.05939222929451645,-0.8494641245050096,0.8631811701794059,-0.08387946912530803,0.38756233005396323,-0.227526062423853,0.0,0.0,-0.49861308984855957,0.055760449573228885,0.6028889079054425,0.0,0.0,0.16003626763011444,0.0,0.0,1.3121550128266097
59,-0.37134878001501925,-0.23089681152046532,-0.44636151517039657,-0.7483242764484983,-0.4355529261824898,-0.11103945554805049,-0.16983821997607926,-0.48917929729076387,0.20927018077735504,0.5863274100342393,0.5411907435888031,0.0,0.45125225840101063,-0.4175239873655615,0.2627547159590238,0.8310351666285727,0.0,0.0,0.9356339328311573,0.1918842207918778,0.0,1.3488017783252393
118,-0.20263280412716175,-0.0911258876813779,-0.2676117810559528,-0.9066413911457883,0.3416651786949984,-0.9709807385805733,0.2568629263042007,-0.13505940219229898,-0.29291408008120584,0.04892101537232865,0.4129103546947458,0.0,0.6865854270545381,-0.9224095660598272,0.7991747378958928,-0.10151922882353343,0.0,0.0,0.545685748828166,-0.08385437876109253,0.0,-0.04455028368721073
236,0.3804250289641786,-0.4244967151469913,0.1576782054558284,-0.8897189198388464,3.0149412829607067,0.36254792694535365,2.0922959899867304,0.3543546572794967,2.743173110202363,-2.7967409359097024,1.3627202649937598,0.0,0.0,-1.3278436897777632,-0.20784100607177047,0.10166402493358766,0.0,0.0,-1.2527947820973169,-0.181225888818627,0.0,0.006551246555593693
237,-0.14525435562046238,-0.1878518235244303,-0.27678573311557175,0.7206855012256888,-0.2829285717452247,-0.4146746088626128,0.7717901062371298,-0.13005880356487345,-0.28292310343944105,0.43259645795077617,-0.011785202429046519,0.0,0.5049924436602132,0.0,-0.038619863774782236,-0.04556132436370497,0.0,0.0,0.3733950924326744,0.04741616308905426,0.0,0.7375448692572987
119,0.4403165354243253,1.646735677180971,-0.9205694869650441,0.7081282130646068,-1.0054689648186732,-0.37968602594862516,-0.0869372703379919,-0.8729418822508467,1.2146133009534645,0.6103740892656391,0.8057348427247993,0.0,0.0,0.26970777204598545,-1.2105852780074287,2.3569864379518743,0.0,0.0,0.8587913163779963,0.5573176156124484,0.0,1.8771937360490718
238,-1.341559901142853,-2.3738605319051085,-0.42474295697118036,-0.023451861365467796,2.320665827254264,-0.5919040835790877,0.06305576963098307,-1.6365960952459242,-2.2197286693211438,0.058127524886726185,0.3188351242069437,0.0,0.0,1.431568228665712,-2.5866750669260155,1.5320694873540033,0.0,0.0,0.15799096832587095,0.21897168076780038,0.0,0.10217614781263507
239,1.417583103101917,0.15529867728642052,-1.0723842240661972,0.7090923829082707,-1.454531432231712,-0.3515003949533185,0.1369990654176809,-0.3051828311584598,1.0873669117043097,0.6308192706518683,0.8933380301296567,0.0,0.0,0.21384586293603264,1.3405008975870862,-0.03018945974158341,0.0,0.0,1.7010719627872444,-0.17691466200571754,0.0,1.7846929296668423
15,0.636953857897699,0.09721926152098775,-0.12135218984199315,0.08080735892520825,-0.13981353439478067,-0.05330568895722913,-0.3288254659348935,-2.0076825363723976e-05,0.016600349448051166,0.21523129230346724,-0.21513679524497198,0.0,0.0,-0.21513679524497198,-0.002797952264444224,0.21802924456791048,0.0,0.0,0.24123413120229106,-0.24113963414379622,0.0,0.8067826056009293
30,0.19290192683249777,1.3792424470672464,-2.0838018740051347,0.050188736343391646,2.5767586284857096,0.5921581404136413,-0.12820264490923425,0.15604833884838848,0.6413909242294451,-0.11104442448662132,-0.6234396753174273,0.0,0.0,-0.6234396753174273,1.3361756746325792,-1.4472200991192026,0.0,0.0,-1.3128111759722199,0.5783270761681782,0.0,-0.38872257165088486
31,0.5063526547287297,0.043526589355647925,-0.0873720864702736,0.048272825138569384,-0.14367063446864725,-0.18812732966047324,-0.19970966596401146,-0.0430557985288064,0.02275396436754318,0.20265386775119104,0.0,0.0,0.0,0.0,0.0010216336890414197,0.2016322340621511,0.0,0.0,0.30433135091078234,-0.1016774831595884,0.0,1.4518089773105407
62,-0.12178085806190066,0.18351794198389773,0.08822046327519181,-0.0615810328663794,0.08660236763104288,-0.22672460574673112,-0.2117930559951205,-0.0651863064566889,-0.0355429893250817,0.3068171437820201,0.0,0.0,0.0,0.0,0.14503104277104437,0.16178610101097438,0.0,0.0,0.07176400424765014,0.23505313953437054,0.0,1.415457708699737
124,0.13126951499285633,0.02662319997998778,0.13493880713110984,0.22020832533222737,0.02853745560835495,-0.15792374058411368,-0.13277262748184335,-0.052194244749003256,-0.012347153414449313,0.2456664592031907,0.0,0.0,0.0,0.0,0.23130793301917552,0.014358526184014989,0.0,0.0,-0.029321028139444077,0.2749874873426347,0.0,0.8850469134046852
248,-0.22344254890874973,-0.6643003340830734,-0.27855710954463087,-0.05923777211445454,-0.4698995859432659,0.29861761200900183,0.5490587246442344,-0.03846255024591647,0.510452915623447,0.18103449099183663,0.0,0.0,0.0,0.0,-0.535993839267662,0.7170283302594992,0.0,0.0,0.18103449099183663,0.0,0.0,-0.135796705167046
249,0.11858276153830934,-0.01180507061412578,-0.0031652353420558556,-0.8485275339366775,0.03435204386074559,-0.5113906281360237,-0.6396833694844918,-0.07248277035590134,-0.03965606449044312,0.34115994267571736,0.0,0.0,0.0,0.0,0.17731404901778205,0.16384589365793592,0.0,0.0,0.15681039102196298,0.1843495516537522,0.0,0.9673159996980435
125,-0.9217860278183228,-3.2475778130147406,0.41311663292421924,-0.2864880731816686,0.8753345118106203,-1.1099854597966035,-1.3884478907826676,-0.1573255682726871,0.6933742160929612,0.7404957287061678,0.0,0.0,0.0,0.0,0.0,0.7404957287061678,0.0,0.0,0.7404957287061678,0.0,0.0,1.2917148212436635
250,-0.2935045704786774,-1.1109843576648084,3.37542903328742,-0.47498884381070966,-5.8274167691047465,0.4300210256503691,0.5379005470628948,0.06094971932519217,-0.11133918708429898,-0.28687649008149346,0.0,0.0,0.0,0.0,0.0,-0.28687649008149346,0.0,0.0,-0.28687649008149346,0.0,0.0,-0.32084249447726343
251,0.016722339612379296,0.5948063337710139,0.4637815856909222,1.1529093448912975,0.035332637738207065,-0.6767926427092089,-0.8465798438828389,-0.09592629000429506,0.12542783422268663,0.451503266752485,0.0,0.0,0.0,0.0,0.0,0.451503266752485,0.0,0.0,0.451503266752485,0.0,0.0,3.189517911683002
63,0.2860504583270041,-0.6258226219080143,0.025028285724353814,0.35121281651973424,-0.23998721228838857,-0.26449696918824994,-0.33085141408530244,-0.03748890187405684,-0.010219466575631539,0.17645174917472597,0.0,0.0,0.0,0.0,1.0453281084234685,-0.8688763592487503,0.0,0.0,0.6925491294368226,-0.5160973802620954,0.0,0.8296429011915105
126,0.2872750310282391,-0.8681489689535816,0.007366978447846132,-2.5574164879574237,1.2909595996737233,0.17872067668803762,0.22355639382179704,0.025331261570919448,-0.7147052000056795,-0.11922849668969453,0.0,0.0,0.0,0.0,0.0,-0.11922849668969453,0.0,0.0,0.3253073527008462,-0.4445358493905355,0.0,-0.1383577356245822
127,0.027784574153248105,-0.4227875026965217,0.01850170067443241,0.5804414114712766,-0.3148804806795888,-0.30457274652941085,-0.38098101536045204,-0.04316910641054089,0.09082813563880249,0.20318718222368737,0.0,0.0,0.0,0.0,0.8143350921959519,-0.6111479099722674,0.0,0.0,-0.20778776371521715,0.4109749459389017,0.0,1.7805494938407294
254,0.2123248091515123,0.882249430376397,-0.7084047221562533,-0.4891504098845022,-0.246501149494682,-0.02432938415498109,-0.03043290505824744,-0.0034483642593015323,-2.2751140414045157,0.016230667609030105,0.0,0.0,0.0,0.0,0.0,0.016230667609030105,0.0,0.0,0.016230667609030105,0.0,0.0,-0.7842742754275491
255,-0.5990171884982103,0.9732591124669502,-0.276590032961474,-0.11448894688573882,-0.5868604055227497,-0.4681819679047073,-0.585634937919712,-0.06635852164147271,0.07110159371599556,0.31233449450248113,0.0,0.0,0.0,0.0,-0.5092273725712578,0.8215618670737371,0.0,0.0,0.10224829606355815,0.2100861984389259,0.0,2.9823757577875094
